<?xml version="1.0"?>
<opencv_storage>
<cascade>
  <stageType>BOOST</stageType>
  <featureType>HAAR</featureType>
  <height>24</height>
  <width>24</width>
  <stageParams>
    <boostType>GAB</boostType>
    <minHitRate>9.9500000476837158e-01</minHitRate>
    <maxFalseAlarm>5.0000000000000000e-01</maxFalseAlarm>
    <weightTrimRate>9.4999998807907104e-01</weightTrimRate>
    <maxDepth>1</maxDepth>
    <maxWeakCount>100</maxWeakCount></stageParams>
  <featureParams>
    <maxCatCount>0</maxCatCount>
    <featSize>1</featSize>
    <mode>BASIC</mode></featureParams>
  <stageNum>20</stageNum>
  <stages>
    <!-- stage 0 -->
    <_>
      <maxWeakCount>3</maxWeakCount>
      <stageThreshold>-8.5672390460968018e-01</stageThreshold>
      <weakClassifiers>
        <_>
          <internalNodes>
            0 -1 63 -1.6502380371093750e-01</internalNodes>
          <leafValues>
            7.4509805440902710e-01 -8.4507042169570923e-01</leafValues></_>
        <_>
          <internalNodes>
            0 -1 34 -6.9255128502845764e-02</internalNodes>
          <leafValues>
            9.2822545766830444e-01 -5.8123195171356201e-01</leafValues></_>
        <_>
          <internalNodes>
            0 -1 71 -1.3770489022135735e-04</internalNodes>
          <leafValues>
            5.6957846879959106e-01 -8.4384655952453613e-01</leafValues></_></weakClassifiers></_>
    <!-- stage 1 -->
    <_>
      <maxWeakCount>5</maxWeakCount>
      <stageThreshold>-1.0430811643600464e+00</stageThreshold>
      <weakClassifiers>
        <_>
          <internalNodes>
            0 -1 25 -7.4645563960075378e-02</internalNodes>
          <leafValues>
            8.5915493965148926e-01 -6.0693639516830444e-01</leafValues></_>
        <_>
          <internalNodes>
            0 -1 0 -2.8334575891494751e-01</internalNodes>
          <leafValues>
            5.6108295917510986e-01 -9.0610140562057495e-01</leafValues></_>
        <_>
          <internalNodes>
            0 -1 30 -5.7066118717193604e-01</internalNodes>
          <leafValues>
            1. -4.6750375628471375e-01</leafValues></_>
        <_>
          <internalNodes>
            0 -1 54 -1.0902618523687124e-03</internalNodes>
          <leafValues>
            -9.4226384162902832e-01 4.7832775115966797e-01</leafValues></_>
        <_>
          <internalNodes>
            0 -1 54 2.2408110089600086e-03</internalNodes>
          <leafValues>
            4.5913264155387878e-01 -9.8511785268783569e-01</leafValues></_></weakClassifiers></_>
    <!-- stage 2 -->
    <_>
      <maxWeakCount>5</maxWeakCount>
      <stageThreshold>-5.8971583843231201e-01</stageThreshold>
      <weakClassifiers>
        <_>
          <internalNodes>
            0 -1 5 -7.1340993046760559e-02</internalNodes>
          <leafValues>
            7.5675678253173828e-01 -5.8823531866073608e-01</leafValues></_>
        <_>
          <internalNodes>
            0 -1 59 -5.1916198572143912e-05</internalNodes>
          <leafValues>
            4.4250142574310303e-01 -9.4046878814697266e-01</leafValues></_>
        <_>
          <internalNodes>
            0 -1 14 4.3172581354156137e-04</internalNodes>
          <leafValues>
            3.0893319845199585e-01 -9.3765509128570557e-01</leafValues></_>
        <_>
          <internalNodes>
            0 -1 81 5.4870196618139744e-04</internalNodes>
          <leafValues>
            3.3175507187843323e-01 -9.8723232746124268e-01</leafValues></_>
        <_>
          <internalNodes>
            0 -1 64 -4.5974800013937056e-04</internalNodes>
          <leafValues>
            -9.8913770914077759e-01 2.9829996824264526e-01</leafValues></_></weakClassifiers></_>
    <!-- stage 3 -->
    <_>
      <maxWeakCount>5</maxWeakCount>
      <stageThreshold>-7.8711450099945068e-01</stageThreshold>
      <weakClassifiers>
        <_>
          <internalNodes>
            0 -1 26 -4.1104860603809357e-02</internalNodes>
          <leafValues>
            8.8059699535369873e-01 -5.8192092180252075e-01</leafValues></_>
        <_>
          <internalNodes>
            0 -1 29 -5.6423664093017578e-01</internalNodes>
          <leafValues>
            8.8553476333618164e-01 -3.9002272486686707e-01</leafValues></_>
        <_>
          <internalNodes>
            0 -1 75 -6.7771528847515583e-04</internalNodes>
          <leafValues>
            -9.6376049518585205e-01 3.9021179080009460e-01</leafValues></_>
        <_>
          <internalNodes>
            0 -1 82 -2.7676174795487896e-05</internalNodes>
          <leafValues>
            4.7400352358818054e-01 -6.6247892379760742e-01</leafValues></_>
        <_>
          <internalNodes>
            0 -1 74 4.9517257139086723e-04</internalNodes>
          <leafValues>
            4.5709624886512756e-01 -8.7686276435852051e-01</leafValues></_></weakClassifiers></_>
    <!-- stage 4 -->
    <_>
      <maxWeakCount>4</maxWeakCount>
      <stageThreshold>-5.9183388948440552e-01</stageThreshold>
      <weakClassifiers>
        <_>
          <internalNodes>
            0 -1 55 -5.4459829698316753e-05</internalNodes>
          <leafValues>
            2.6174497604370117e-01 -8.7368422746658325e-01</leafValues></_>
        <_>
          <internalNodes>
            0 -1 19 -7.9243049025535583e-02</internalNodes>
          <leafValues>
            7.3292654752731323e-01 -5.1966595649719238e-01</leafValues></_>
        <_>
          <internalNodes>
            0 -1 87 -2.7540978408069350e-05</internalNodes>
          <leafValues>
            5.3934264183044434e-01 -6.7499125003814697e-01</leafValues></_>
        <_>
          <internalNodes>
            0 -1 50 -7.5228130444884300e-03</internalNodes>
          <leafValues>
            -9.1151416301727295e-01 3.6264818906784058e-01</leafValues></_></weakClassifiers></_>
    <!-- stage 5 -->
    <_>
      <maxWeakCount>3</maxWeakCount>
      <stageThreshold>-8.6396056413650513e-01</stageThreshold>
      <weakClassifiers>
        <_>
          <internalNodes>
            0 -1 15 -1.1687953025102615e-02</internalNodes>
          <leafValues>
            7.1717172861099243e-01 -7.9310345649719238e-01</leafValues></_>
        <_>
          <internalNodes>
            0 -1 13 -4.3147996068000793e-02</internalNodes>
          <leafValues>
            6.7242664098739624e-01 -6.2098687887191772e-01</leafValues></_>
        <_>
          <internalNodes>
            0 -1 68 1.6300767892971635e-03</internalNodes>
          <leafValues>
            -7.4328380823135376e-01 5.6665885448455811e-01</leafValues></_></weakClassifiers></_>
    <!-- stage 6 -->
    <_>
      <maxWeakCount>5</maxWeakCount>
      <stageThreshold>-1.0377588272094727e+00</stageThreshold>
      <weakClassifiers>
        <_>
          <internalNodes>
            0 -1 1 -8.1349752843379974e-02</internalNodes>
          <leafValues>
            5.7894736528396606e-01 -6.6442954540252686e-01</leafValues></_>
        <_>
          <internalNodes>
            0 -1 77 -2.7229914849158376e-05</internalNodes>
          <leafValues>
            5.0156420469284058e-01 -6.8311387300491333e-01</leafValues></_>
        <_>
          <internalNodes>
            0 -1 92 -1.0922184213995934e-02</internalNodes>
          <leafValues>
            3.7182596325874329e-01 -7.9383832216262817e-01</leafValues></_>
        <_>
          <internalNodes>
            0 -1 85 1.7883788794279099e-02</internalNodes>
          <leafValues>
            -4.2177256941795349e-01 7.5046128034591675e-01</leafValues></_>
        <_>
          <internalNodes>
            0 -1 57 -1.1924859136343002e-03</internalNodes>
          <leafValues>
            -9.7226732969284058e-01 3.5973116755485535e-01</leafValues></_></weakClassifiers></_>
    <!-- stage 7 -->
    <_>
      <maxWeakCount>5</maxWeakCount>
      <stageThreshold>-1.2992047071456909e+00</stageThreshold>
      <weakClassifiers>
        <_>
          <internalNodes>
            0 -1 8 -5.0896577537059784e-02</internalNodes>
          <leafValues>
            5.6989246606826782e-01 -6.4238411188125610e-01</leafValues></_>
        <_>
          <internalNodes>
            0 -1 83 -2.3698901757597923e-02</internalNodes>
          <leafValues>
            5.9410876035690308e-01 -5.5605286359786987e-01</leafValues></_>
        <_>
          <internalNodes>
            0 -1 49 -4.9115868750959635e-04</internalNodes>
          <leafValues>
            -8.6471146345138550e-01 3.3048161864280701e-01</leafValues></_>
        <_>
          <internalNodes>
            0 -1 56 8.7147852173075080e-04</internalNodes>
          <leafValues>
            3.7405112385749817e-01 -7.3173600435256958e-01</leafValues></_>
        <_>
          <internalNodes>
            0 -1 79 -4.6267108991742134e-03</internalNodes>
          <leafValues>
            -8.7792021036148071e-01 3.0048665404319763e-01</leafValues></_></weakClassifiers></_>
    <!-- stage 8 -->
    <_>
      <maxWeakCount>4</maxWeakCount>
      <stageThreshold>-6.6293305158615112e-01</stageThreshold>
      <weakClassifiers>
        <_>
          <internalNodes>
            0 -1 66 1.1152414977550507e-01</internalNodes>
          <leafValues>
            -4.5833334326744080e-01 8.4615385532379150e-01</leafValues></_>
        <_>
          <internalNodes>
            0 -1 70 9.4328261911869049e-04</internalNodes>
          <leafValues>
            3.4817171096801758e-01 -8.7101870775222778e-01</leafValues></_>
        <_>
          <internalNodes>
            0 -1 45 -8.6628482677042484e-05</internalNodes>
          <leafValues>
            2.9114243388175964e-01 -8.9467322826385498e-01</leafValues></_>
        <_>
          <internalNodes>
            0 -1 31 5.3855316946282983e-04</internalNodes>
          <leafValues>
            3.4190183877944946e-01 -7.9416048526763916e-01</leafValues></_></weakClassifiers></_>
    <!-- stage 9 -->
    <_>
      <maxWeakCount>5</maxWeakCount>
      <stageThreshold>-8.8502484560012817e-01</stageThreshold>
      <weakClassifiers>
        <_>
          <internalNodes>
            0 -1 9 -2.2192677482962608e-02</internalNodes>
          <leafValues>
            4.8936170339584351e-01 -6.0000002384185791e-01</leafValues></_>
        <_>
          <internalNodes>
            0 -1 60 -2.2305669263005257e-03</internalNodes>
          <leafValues>
            4.4659113883972168e-01 -7.2327142953872681e-01</leafValues></_>
        <_>
          <internalNodes>
            0 -1 42 -5.1108375191688538e-02</internalNodes>
          <leafValues>
            5.5977314710617065e-01 -5.8873820304870605e-01</leafValues></_>
        <_>
          <internalNodes>
            0 -1 94 3.2132047635968775e-05</internalNodes>
          <leafValues>
            -7.1112555265426636e-01 4.9519586563110352e-01</leafValues></_>
        <_>
          <internalNodes>
            0 -1 41 -2.8253260534256697e-03</internalNodes>
          <leafValues>
            6.3511574268341064e-01 -4.9976271390914917e-01</leafValues></_></weakClassifiers></_>
    <!-- stage 10 -->
    <_>
      <maxWeakCount>5</maxWeakCount>
      <stageThreshold>-2.5297299027442932e-01</stageThreshold>
      <weakClassifiers>
        <_>
          <internalNodes>
            0 -1 86 7.7601335942745209e-03</internalNodes>
          <leafValues>
            -4.8603352904319763e-01 6.6153848171234131e-01</leafValues></_>
        <_>
          <internalNodes>
            0 -1 88 -7.9637087765149772e-05</internalNodes>
          <leafValues>
            3.5456314682960510e-01 -7.8459471464157104e-01</leafValues></_>
        <_>
          <internalNodes>
            0 -1 39 -4.4453539885580540e-03</internalNodes>
          <leafValues>
            -8.6554163694381714e-01 2.6401618123054504e-01</leafValues></_>
        <_>
          <internalNodes>
            0 -1 38 -4.8266656813211739e-04</internalNodes>
          <leafValues>
            -8.3389246463775635e-01 2.9621562361717224e-01</leafValues></_>
        <_>
          <internalNodes>
            0 -1 22 -3.0310405418276787e-03</internalNodes>
          <leafValues>
            4.5742341876029968e-01 -5.9935104846954346e-01</leafValues></_></weakClassifiers></_>
    <!-- stage 11 -->
    <_>
      <maxWeakCount>5</maxWeakCount>
      <stageThreshold>-6.6897124052047729e-01</stageThreshold>
      <weakClassifiers>
        <_>
          <internalNodes>
            0 -1 28 -5.2907690405845642e-02</internalNodes>
          <leafValues>
            6.7088609933853149e-01 -5.8787876367568970e-01</leafValues></_>
        <_>
          <internalNodes>
            0 -1 69 1.4543408527970314e-02</internalNodes>
          <leafValues>
            -3.3081716299057007e-01 8.2989114522933960e-01</leafValues></_>
        <_>
          <internalNodes>
            0 -1 84 -7.9192407429218292e-03</internalNodes>
          <leafValues>
            5.2556365728378296e-01 -5.3533220291137695e-01</leafValues></_>
        <_>
          <internalNodes>
            0 -1 16 -1.8762136460281909e-04</internalNodes>
          <leafValues>
            -8.8296747207641602e-01 3.3754837512969971e-01</leafValues></_>
        <_>
          <internalNodes>
            0 -1 46 -2.7229914849158376e-05</internalNodes>
          <leafValues>
            4.4750854372978210e-01 -6.8954330682754517e-01</leafValues></_></weakClassifiers></_>
    <!-- stage 12 -->
    <_>
      <maxWeakCount>6</maxWeakCount>
      <stageThreshold>-1.2664492130279541e+00</stageThreshold>
      <weakClassifiers>
        <_>
          <internalNodes>
            0 -1 3 -8.0196052789688110e-02</internalNodes>
          <leafValues>
            6.1290323734283447e-01 -6.6887414455413818e-01</leafValues></_>
        <_>
          <internalNodes>
            0 -1 27 3.7325201556086540e-03</internalNodes>
          <leafValues>
            -3.8466370105743408e-01 7.0806694030761719e-01</leafValues></_>
        <_>
          <internalNodes>
            0 -1 4 -1.5237702988088131e-02</internalNodes>
          <leafValues>
            7.2389930486679077e-01 -3.6777174472808838e-01</leafValues></_>
        <_>
          <internalNodes>
            0 -1 48 7.8516495705116540e-05</internalNodes>
          <leafValues>
            -4.9255880713462830e-01 6.1296486854553223e-01</leafValues></_>
        <_>
          <internalNodes>
            0 -1 24 2.1279181540012360e-01</internalNodes>
          <leafValues>
            3.0425262451171875e-01 -1.</leafValues></_>
        <_>
          <internalNodes>
            0 -1 32 -1.3507490511983633e-03</internalNodes>
          <leafValues>
            -7.8818434476852417e-01 3.4316655993461609e-01</leafValues></_></weakClassifiers></_>
    <!-- stage 13 -->
    <_>
      <maxWeakCount>6</maxWeakCount>
      <stageThreshold>-8.7677794694900513e-01</stageThreshold>
      <weakClassifiers>
        <_>
          <internalNodes>
            0 -1 40 2.2071573883295059e-02</internalNodes>
          <leafValues>
            -6.3358777761459351e-01 3.4513273835182190e-01</leafValues></_>
        <_>
          <internalNodes>
            0 -1 89 1.0516832116991282e-04</internalNodes>
          <leafValues>
            -7.0233350992202759e-01 3.8112288713455200e-01</leafValues></_>
        <_>
          <internalNodes>
            0 -1 43 -1.4553507789969444e-03</internalNodes>
          <leafValues>
            3.3623880147933960e-01 -8.7687689065933228e-01</leafValues></_>
        <_>
          <internalNodes>
            0 -1 2 -1.0581343434751034e-02</internalNodes>
          <leafValues>
            6.2762778997421265e-01 -3.9789766073226929e-01</leafValues></_>
        <_>
          <internalNodes>
            0 -1 76 -4.0492084808647633e-03</internalNodes>
          <leafValues>
            3.0593118071556091e-01 -6.6025650501251221e-01</leafValues></_>
        <_>
          <internalNodes>
            0 -1 12 -7.4987427797168493e-04</internalNodes>
          <leafValues>
            -7.6384949684143066e-01 3.6875432729721069e-01</leafValues></_></weakClassifiers></_>
    <!-- stage 14 -->
    <_>
      <maxWeakCount>6</maxWeakCount>
      <stageThreshold>-8.9109390974044800e-01</stageThreshold>
      <weakClassifiers>
        <_>
          <internalNodes>
            0 -1 20 -2.1636974066495895e-02</internalNodes>
          <leafValues>
            4.7252747416496277e-01 -5.6862747669219971e-01</leafValues></_>
        <_>
          <internalNodes>
            0 -1 37 -4.9147626850754023e-04</internalNodes>
          <leafValues>
            -7.4488604068756104e-01 3.1641554832458496e-01</leafValues></_>
        <_>
          <internalNodes>
            0 -1 51 3.3079792046919465e-04</internalNodes>
          <leafValues>
            2.7158513665199280e-01 -7.0513403415679932e-01</leafValues></_>
        <_>
          <internalNodes>
            0 -1 91 4.9593468429520726e-04</internalNodes>
          <leafValues>
            -4.4591426849365234e-01 4.8149931430816650e-01</leafValues></_>
        <_>
          <internalNodes>
            0 -1 44 7.7460025204345584e-04</internalNodes>
          <leafValues>
            3.2373222708702087e-01 -6.8951064348220825e-01</leafValues></_>
        <_>
          <internalNodes>
            0 -1 35 -4.8293940722942352e-02</internalNodes>
          <leafValues>
            -8.7455588579177856e-01 2.7426335215568542e-01</leafValues></_></weakClassifiers></_>
    <!-- stage 15 -->
    <_>
      <maxWeakCount>3</maxWeakCount>
      <stageThreshold>-2.8981620073318481e-01</stageThreshold>
      <weakClassifiers>
        <_>
          <internalNodes>
            0 -1 93 4.6880482695996761e-03</internalNodes>
          <leafValues>
            -6.0000002384185791e-01 4.3434342741966248e-01</leafValues></_>
        <_>
          <internalNodes>
            0 -1 17 -3.0101224547252059e-04</internalNodes>
          <leafValues>
            2.8100743889808655e-01 -8.8532370328903198e-01</leafValues></_>
        <_>
          <internalNodes>
            0 -1 52 6.9226464256644249e-04</internalNodes>
          <leafValues>
            1.6116409003734589e-01 -9.7287732362747192e-01</leafValues></_></weakClassifiers></_>
    <!-- stage 16 -->
    <_>
      <maxWeakCount>7</maxWeakCount>
      <stageThreshold>-9.6522551774978638e-01</stageThreshold>
      <weakClassifiers>
        <_>
          <internalNodes>
            0 -1 23 2.2624421864748001e-02</internalNodes>
          <leafValues>
            -4.7191011905670166e-01 6.0606062412261963e-01</leafValues></_>
        <_>
          <internalNodes>
            0 -1 90 -5.9591558965621516e-05</internalNodes>
          <leafValues>
            3.6894947290420532e-01 -6.2025481462478638e-01</leafValues></_>
        <_>
          <internalNodes>
            0 -1 67 -5.6066728575387970e-05</internalNodes>
          <leafValues>
            3.5852155089378357e-01 -6.1398756504058838e-01</leafValues></_>
        <_>
          <internalNodes>
            0 -1 58 9.2370556667447090e-03</internalNodes>
          <leafValues>
            -3.6492225527763367e-01 7.1222788095474243e-01</leafValues></_>
        <_>
          <internalNodes>
            0 -1 7 4.0760594420135021e-03</internalNodes>
          <leafValues>
            -4.5408329367637634e-01 6.1343514919281006e-01</leafValues></_>
        <_>
          <internalNodes>
            0 -1 11 -5.9819233138114214e-04</internalNodes>
          <leafValues>
            -8.4022533893585205e-01 3.3114743232727051e-01</leafValues></_>
        <_>
          <internalNodes>
            0 -1 61 -3.5412955912761390e-04</internalNodes>
          <leafValues>
            -8.0989223718643188e-01 2.5627595186233521e-01</leafValues></_></weakClassifiers></_>
    <!-- stage 17 -->
    <_>
      <maxWeakCount>5</maxWeakCount>
      <stageThreshold>-8.3599096536636353e-01</stageThreshold>
      <weakClassifiers>
        <_>
          <internalNodes>
            0 -1 73 -1.3236466329544783e-03</internalNodes>
          <leafValues>
            4.0206184983253479e-01 -5.6462585926055908e-01</leafValues></_>
        <_>
          <internalNodes>
            0 -1 78 -5.3434792789630592e-05</internalNodes>
          <leafValues>
            3.5903152823448181e-01 -6.6086101531982422e-01</leafValues></_>
        <_>
          <internalNodes>
            0 -1 65 -6.2002683989703655e-04</internalNodes>
          <leafValues>
            -8.5725450515747070e-01 2.3128595948219299e-01</leafValues></_>
        <_>
          <internalNodes>
            0 -1 53 -1.6251618042588234e-02</internalNodes>
          <leafValues>
            5.1530694961547852e-01 -4.8552414774894714e-01</leafValues></_>
        <_>
          <internalNodes>
            0 -1 21 -7.2704828344285488e-03</internalNodes>
          <leafValues>
            6.4557975530624390e-01 -3.5709699988365173e-01</leafValues></_></weakClassifiers></_>
    <!-- stage 18 -->
    <_>
      <maxWeakCount>5</maxWeakCount>
      <stageThreshold>-4.2934772372245789e-01</stageThreshold>
      <weakClassifiers>
        <_>
          <internalNodes>
            0 -1 33 -2.4160757660865784e-02</internalNodes>
          <leafValues>
            5.0588238239288330e-01 -5.4716980457305908e-01</leafValues></_>
        <_>
          <internalNodes>
            0 -1 47 3.0140028684400022e-05</internalNodes>
          <leafValues>
            -4.7406780719757080e-01 4.6787688136100769e-01</leafValues></_>
        <_>
          <internalNodes>
            0 -1 36 -8.6042506154626608e-05</internalNodes>
          <leafValues>
            3.4884592890739441e-01 -5.6204712390899658e-01</leafValues></_>
        <_>
          <internalNodes>
            0 -1 6 -1.3325121253728867e-03</internalNodes>
          <leafValues>
            5.4296743869781494e-01 -3.8773152232170105e-01</leafValues></_>
        <_>
          <internalNodes>
            0 -1 18 4.6644462272524834e-03</internalNodes>
          <leafValues>
            -2.9992344975471497e-01 7.0045799016952515e-01</leafValues></_></weakClassifiers></_>
    <!-- stage 19 -->
    <_>
      <maxWeakCount>4</maxWeakCount>
      <stageThreshold>-8.1749451160430908e-01</stageThreshold>
      <weakClassifiers>
        <_>
          <internalNodes>
            0 -1 10 -8.5462257266044617e-03</internalNodes>
          <leafValues>
            3.2710281014442444e-01 -5.7664233446121216e-01</leafValues></_>
        <_>
          <internalNodes>
            0 -1 80 -5.6843811762519181e-05</internalNodes>
          <leafValues>
            3.0983740091323853e-01 -7.1262240409851074e-01</leafValues></_>
        <_>
          <internalNodes>
            0 -1 62 4.3713848572224379e-04</internalNodes>
          <leafValues>
            2.0072294771671295e-01 -8.7381106615066528e-01</leafValues></_>
        <_>
          <internalNodes>
            0 -1 72 1.3938307529315352e-04</internalNodes>
          <leafValues>
            2.7104732394218445e-01 -7.1031308174133301e-01</leafValues></_></weakClassifiers></_></stages>
  <features>
    <_>
      <rects>
        <_>
          0 0 24 24 -1.</_>
        <_>
          0 12 24 12 2.</_></rects>
      <tilted>0</tilted></_>
    <_>
      <rects>
        <_>
          0 1 8 23 -1.</_>
        <_>
          4 1 4 23 2.</_></rects>
      <tilted>0</tilted></_>
    <_>
      <rects>
        <_>
          0 2 6 14 -1.</_>
        <_>
          0 2 3 7 2.</_>
        <_>
          3 9 3 7 2.</_></rects>
      <tilted>0</tilted></_>
    <_>
      <rects>
        <_>
          0 2 8 22 -1.</_>
        <_>
          4 2 4 22 2.</_></rects>
      <tilted>0</tilted></_>
    <_>
      <rects>
        <_>
          0 2 15 5 -1.</_>
        <_>
          5 2 5 5 3.</_></rects>
      <tilted>0</tilted></_>
    <_>
      <rects>
        <_>
          0 2 24 3 -1.</_>
        <_>
          8 2 8 3 3.</_></rects>
      <tilted>0</tilted></_>
    <_>
      <rects>
        <_>
          0 3 4 6 -1.</_>
        <_>
          0 3 2 3 2.</_>
        <_>
          2 6 2 3 2.</_></rects>
      <tilted>0</tilted></_>
    <_>
      <rects>
        <_>
          0 3 15 1 -1.</_>
        <_>
          5 3 5 1 3.</_></rects>
      <tilted>0</tilted></_>
    <_>
      <rects>
        <_>
          0 4 6 20 -1.</_>
        <_>
          3 4 3 20 2.</_></rects>
      <tilted>0</tilted></_>
    <_>
      <rects>
        <_>
          0 5 4 19 -1.</_>
        <_>
          2 5 2 19 2.</_></rects>
      <tilted>0</tilted></_>
    <_>
      <rects>
        <_>
          0 8 4 6 -1.</_>
        <_>
          2 8 2 6 2.</_></rects>
      <tilted>0</tilted></_>
    <_>
      <rects>
        <_>
          0 13 2 3 -1.</_>
        <_>
          0 14 2 1 3.</_></rects>
      <tilted>0</tilted></_>
    <_>
      <rects>
        <_>
          0 14 4 3 -1.</_>
        <_>
          0 15 4 1 3.</_></rects>
      <tilted>0</tilted></_>
    <_>
      <rects>
        <_>
          0 20 24 4 -1.</_>
        <_>
          8 20 8 4 3.</_></rects>
      <tilted>0</tilted></_>
    <_>
      <rects>
        <_>
          0 21 4 3 -1.</_>
        <_>
          2 21 2 3 2.</_></rects>
      <tilted>0</tilted></_>
    <_>
      <rects>
        <_>
          0 21 8 3 -1.</_>
        <_>
          4 21 4 3 2.</_></rects>
      <tilted>0</tilted></_>
    <_>
      <rects>
        <_>
          0 22 1 2 -1.</_>
        <_>
          0 23 1 1 2.</_></rects>
      <tilted>0</tilted></_>
    <_>
      <rects>
        <_>
          0 22 4 2 -1.</_>
        <_>
          2 22 2 2 2.</_></rects>
      <tilted>0</tilted></_>
    <_>
      <rects>
        <_>
          1 0 8 6 -1.</_>
        <_>
          1 0 4 3 2.</_>
        <_>
          5 3 4 3 2.</_></rects>
      <tilted>0</tilted></_>
    <_>
      <rects>
        <_>
          1 0 17 6 -1.</_>
        <_>
          1 3 17 3 2.</_></rects>
      <tilted>0</tilted></_>
    <_>
      <rects>
        <_>
          1 2 8 6 -1.</_>
        <_>
          5 2 4 6 2.</_></rects>
      <tilted>0</tilted></_>
    <_>
      <rects>
        <_>
          1 20 10 4 -1.</_>
        <_>
          1 20 5 2 2.</_>
        <_>
          6 22 5 2 2.</_></rects>
      <tilted>0</tilted></_>
    <_>
      <rects>
        <_>
          1 23 6 1 -1.</_>
        <_>
          4 23 3 1 2.</_></rects>
      <tilted>0</tilted></_>
    <_>
      <rects>
        <_>
          2 3 8 8 -1.</_>
        <_>
          2 3 4 4 2.</_>
        <_>
          6 7 4 4 2.</_></rects>
      <tilted>0</tilted></_>
    <_>
      <rects>
        <_>
          3 0 18 20 -1.</_>
        <_>
          12 0 9 20 2.</_></rects>
      <tilted>0</tilted></_>
    <_>
      <rects>
        <_>
          4 0 16 6 -1.</_>
        <_>
          4 3 16 3 2.</_></rects>
      <tilted>0</tilted></_>
    <_>
      <rects>
        <_>
          4 0 17 4 -1.</_>
        <_>
          4 2 17 2 2.</_></rects>
      <tilted>0</tilted></_>
    <_>
      <rects>
        <_>
          5 0 2 6 -1.</_>
        <_>
          5 2 2 2 3.</_></rects>
      <tilted>0</tilted></_>
    <_>
      <rects>
        <_>
          5 0 14 9 -1.</_>
        <_>
          5 3 14 3 3.</_></rects>
      <tilted>0</tilted></_>
    <_>
      <rects>
        <_>
          5 0 17 24 -1.</_>
        <_>
          5 12 17 12 2.</_></rects>
      <tilted>0</tilted></_>
    <_>
      <rects>
        <_>
          5 0 19 24 -1.</_>
        <_>
          5 12 19 12 2.</_></rects>
      <tilted>0</tilted></_>
    <_>
      <rects>
        <_>
          5 11 2 8 -1.</_>
        <_>
          5 11 1 4 2.</_>
        <_>
          6 15 1 4 2.</_></rects>
      <tilted>0</tilted></_>
    <_>
      <rects>
        <_>
          5 17 18 3 -1.</_>
        <_>
          5 18 18 1 3.</_></rects>
      <tilted>0</tilted></_>
    <_>
      <rects>
        <_>
          6 0 5 9 -1.</_>
        <_>
          6 3 5 3 3.</_></rects>
      <tilted>0</tilted></_>
    <_>
      <rects>
        <_>
          6 0 15 6 -1.</_>
        <_>
          6 3 15 3 2.</_></rects>
      <tilted>0</tilted></_>
    <_>
      <rects>
        <_>
          7 4 12 20 -1.</_>
        <_>
          13 4 6 20 2.</_></rects>
      <tilted>0</tilted></_>
    <_>
      <rects>
        <_>
          7 12 1 2 -1.</_>
        <_>
          7 13 1 1 2.</_></rects>
      <tilted>0</tilted></_>
    <_>
      <rects>
        <_>
          7 14 3 2 -1.</_>
        <_>
          8 14 1 2 3.</_></rects>
      <tilted>0</tilted></_>
    <_>
      <rects>
        <_>
          7 14 2 4 -1.</_>
        <_>
          7 14 1 2 2.</_>
        <_>
          8 16 1 2 2.</_></rects>
      <tilted>0</tilted></_>
    <_>
      <rects>
        <_>
          8 3 4 18 -1.</_>
        <_>
          8 3 2 9 2.</_>
        <_>
          10 12 2 9 2.</_></rects>
      <tilted>0</tilted></_>
    <_>
      <rects>
        <_>
          8 3 16 3 -1.</_>
        <_>
          16 3 8 3 2.</_></rects>
      <tilted>0</tilted></_>
    <_>
      <rects>
        <_>
          8 7 3 4 -1.</_>
        <_>
          8 9 3 2 2.</_></rects>
      <tilted>0</tilted></_>
    <_>
      <rects>
        <_>
          9 0 15 8 -1.</_>
        <_>
          9 4 15 4 2.</_></rects>
      <tilted>0</tilted></_>
    <_>
      <rects>
        <_>
          9 16 3 6 -1.</_>
        <_>
          9 19 3 3 2.</_></rects>
      <tilted>0</tilted></_>
    <_>
      <rects>
        <_>
          9 17 4 3 -1.</_>
        <_>
          9 18 4 1 3.</_></rects>
      <tilted>0</tilted></_>
    <_>
      <rects>
        <_>
          9 19 3 2 -1.</_>
        <_>
          9 20 3 1 2.</_></rects>
      <tilted>0</tilted></_>
    <_>
      <rects>
        <_>
          9 20 1 2 -1.</_>
        <_>
          9 21 1 1 2.</_></rects>
      <tilted>0</tilted></_>
    <_>
      <rects>
        <_>
          9 20 1 3 -1.</_>
        <_>
          9 21 1 1 3.</_></rects>
      <tilted>0</tilted></_>
    <_>
      <rects>
        <_>
          9 20 3 3 -1.</_>
        <_>
          9 21 3 1 3.</_></rects>
      <tilted>0</tilted></_>
    <_>
      <rects>
        <_>
          9 22 3 1 -1.</_>
        <_>
          10 22 1 1 3.</_></rects>
      <tilted>0</tilted></_>
    <_>
      <rects>
        <_>
          10 10 12 5 -1.</_>
        <_>
          14 10 4 5 3.</_></rects>
      <tilted>0</tilted></_>
    <_>
      <rects>
        <_>
          10 13 8 2 -1.</_>
        <_>
          10 13 4 1 2.</_>
        <_>
          14 14 4 1 2.</_></rects>
      <tilted>0</tilted></_>
    <_>
      <rects>
        <_>
          11 2 3 2 -1.</_>
        <_>
          12 2 1 2 3.</_></rects>
      <tilted>0</tilted></_>
    <_>
      <rects>
        <_>
          11 3 12 20 -1.</_>
        <_>
          15 3 4 20 3.</_></rects>
      <tilted>0</tilted></_>
    <_>
      <rects>
        <_>
          11 14 3 9 -1.</_>
        <_>
          12 14 1 9 3.</_></rects>
      <tilted>0</tilted></_>
    <_>
      <rects>
        <_>
          11 16 3 2 -1.</_>
        <_>
          11 17 3 1 2.</_></rects>
      <tilted>0</tilted></_>
    <_>
      <rects>
        <_>
          11 19 3 5 -1.</_>
        <_>
          12 19 1 5 3.</_></rects>
      <tilted>0</tilted></_>
    <_>
      <rects>
        <_>
          11 21 3 3 -1.</_>
        <_>
          12 21 1 3 3.</_></rects>
      <tilted>0</tilted></_>
    <_>
      <rects>
        <_>
          12 3 12 1 -1.</_>
        <_>
          18 3 6 1 2.</_></rects>
      <tilted>0</tilted></_>
    <_>
      <rects>
        <_>
          12 17 1 4 -1.</_>
        <_>
          12 19 1 2 2.</_></rects>
      <tilted>0</tilted></_>
    <_>
      <rects>
        <_>
          14 11 7 4 -1.</_>
        <_>
          14 13 7 2 2.</_></rects>
      <tilted>0</tilted></_>
    <_>
      <rects>
        <_>
          14 16 2 4 -1.</_>
        <_>
          14 16 1 2 2.</_>
        <_>
          15 18 1 2 2.</_></rects>
      <tilted>0</tilted></_>
    <_>
      <rects>
        <_>
          14 21 3 1 -1.</_>
        <_>
          15 21 1 1 3.</_></rects>
      <tilted>0</tilted></_>
    <_>
      <rects>
        <_>
          15 0 9 24 -1.</_>
        <_>
          15 12 9 12 2.</_></rects>
      <tilted>0</tilted></_>
    <_>
      <rects>
        <_>
          15 17 2 2 -1.</_>
        <_>
          15 17 1 1 2.</_>
        <_>
          16 18 1 1 2.</_></rects>
      <tilted>0</tilted></_>
    <_>
      <rects>
        <_>
          15 18 3 2 -1.</_>
        <_>
          16 18 1 2 3.</_></rects>
      <tilted>0</tilted></_>
    <_>
      <rects>
        <_>
          16 1 8 23 -1.</_>
        <_>
          20 1 4 23 2.</_></rects>
      <tilted>0</tilted></_>
    <_>
      <rects>
        <_>
          16 17 1 2 -1.</_>
        <_>
          16 18 1 1 2.</_></rects>
      <tilted>0</tilted></_>
    <_>
      <rects>
        <_>
          16 23 8 1 -1.</_>
        <_>
          20 23 4 1 2.</_></rects>
      <tilted>0</tilted></_>
    <_>
      <rects>
        <_>
          17 0 4 9 -1.</_>
        <_>
          17 3 4 3 3.</_></rects>
      <tilted>0</tilted></_>
    <_>
      <rects>
        <_>
          17 13 4 2 -1.</_>
        <_>
          19 13 2 2 2.</_></rects>
      <tilted>0</tilted></_>
    <_>
      <rects>
        <_>
          17 14 3 4 -1.</_>
        <_>
          17 16 3 2 2.</_></rects>
      <tilted>0</tilted></_>
    <_>
      <rects>
        <_>
          18 10 6 1 -1.</_>
        <_>
          20 10 2 1 3.</_></rects>
      <tilted>0</tilted></_>
    <_>
      <rects>
        <_>
          18 11 6 1 -1.</_>
        <_>
          20 11 2 1 3.</_></rects>
      <tilted>0</tilted></_>
    <_>
      <rects>
        <_>
          18 12 1 3 -1.</_>
        <_>
          18 13 1 1 3.</_></rects>
      <tilted>0</tilted></_>
    <_>
      <rects>
        <_>
          18 13 4 2 -1.</_>
        <_>
          18 13 2 1 2.</_>
        <_>
          20 14 2 1 2.</_></rects>
      <tilted>0</tilted></_>
    <_>
      <rects>
        <_>
          18 15 6 6 -1.</_>
        <_>
          18 18 6 3 2.</_></rects>
      <tilted>0</tilted></_>
    <_>
      <rects>
        <_>
          18 17 1 2 -1.</_>
        <_>
          18 18 1 1 2.</_></rects>
      <tilted>0</tilted></_>
    <_>
      <rects>
        <_>
          18 18 1 2 -1.</_>
        <_>
          18 19 1 1 2.</_></rects>
      <tilted>0</tilted></_>
    <_>
      <rects>
        <_>
          19 11 5 6 -1.</_>
        <_>
          19 13 5 2 3.</_></rects>
      <tilted>0</tilted></_>
    <_>
      <rects>
        <_>
          19 13 1 2 -1.</_>
        <_>
          19 14 1 1 2.</_></rects>
      <tilted>0</tilted></_>
    <_>
      <rects>
        <_>
          19 14 1 3 -1.</_>
        <_>
          19 15 1 1 3.</_></rects>
      <tilted>0</tilted></_>
    <_>
      <rects>
        <_>
          19 17 1 2 -1.</_>
        <_>
          19 18 1 1 2.</_></rects>
      <tilted>0</tilted></_>
    <_>
      <rects>
        <_>
          20 2 1 22 -1.</_>
        <_>
          20 13 1 11 2.</_></rects>
      <tilted>0</tilted></_>
    <_>
      <rects>
        <_>
          20 2 3 8 -1.</_>
        <_>
          20 6 3 4 2.</_></rects>
      <tilted>0</tilted></_>
    <_>
      <rects>
        <_>
          20 3 4 13 -1.</_>
        <_>
          22 3 2 13 2.</_></rects>
      <tilted>0</tilted></_>
    <_>
      <rects>
        <_>
          20 6 4 4 -1.</_>
        <_>
          22 6 2 4 2.</_></rects>
      <tilted>0</tilted></_>
    <_>
      <rects>
        <_>
          20 13 1 2 -1.</_>
        <_>
          20 14 1 1 2.</_></rects>
      <tilted>0</tilted></_>
    <_>
      <rects>
        <_>
          20 14 1 4 -1.</_>
        <_>
          20 16 1 2 2.</_></rects>
      <tilted>0</tilted></_>
    <_>
      <rects>
        <_>
          20 22 2 1 -1.</_>
        <_>
          21 22 1 1 2.</_></rects>
      <tilted>0</tilted></_>
    <_>
      <rects>
        <_>
          21 6 1 2 -1.</_>
        <_>
          21 7 1 1 2.</_></rects>
      <tilted>0</tilted></_>
    <_>
      <rects>
        <_>
          22 5 2 6 -1.</_>
        <_>
          22 5 1 3 2.</_>
        <_>
          23 8 1 3 2.</_></rects>
      <tilted>0</tilted></_>
    <_>
      <rects>
        <_>
          22 6 2 18 -1.</_>
        <_>
          22 15 2 9 2.</_></rects>
      <tilted>0</tilted></_>
    <_>
      <rects>
        <_>
          22 7 2 16 -1.</_>
        <_>
          23 7 1 16 2.</_></rects>
      <tilted>0</tilted></_>
    <_>
      <rects>
        <_>
          22 21 2 1 -1.</_>
        <_>
          23 21 1 1 2.</_></rects>
      <tilted>0</tilted></_></features></cascade>
</opencv_storage>
