<?xml version="1.0"?>
<opencv_storage>
<cascade>
  <stageType>BOOST</stageType>
  <featureType>HAAR</featureType>
  <height>24</height>
  <width>24</width>
  <stageParams>
    <boostType>GAB</boostType>
    <minHitRate>9.9500000476837158e-01</minHitRate>
    <maxFalseAlarm>5.0000000000000000e-01</maxFalseAlarm>
    <weightTrimRate>9.4999998807907104e-01</weightTrimRate>
    <maxDepth>1</maxDepth>
    <maxWeakCount>100</maxWeakCount></stageParams>
  <featureParams>
    <maxCatCount>0</maxCatCount>
    <featSize>1</featSize>
    <mode>BASIC</mode></featureParams>
  <stageNum>20</stageNum>
  <stages>
    <!-- stage 0 -->
    <_>
      <maxWeakCount>2</maxWeakCount>
      <stageThreshold>5.2910052239894867e-02</stageThreshold>
      <weakClassifiers>
        <_>
          <internalNodes>
            0 -1 24 -2.3786701785866171e-04</internalNodes>
          <leafValues>
            1. -9.4708997011184692e-01</leafValues></_>
        <_>
          <internalNodes>
            0 -1 38 -1.2144667562097311e-04</internalNodes>
          <leafValues>
            1. -9.3999928236007690e-01</leafValues></_></weakClassifiers></_>
    <!-- stage 1 -->
    <_>
      <maxWeakCount>3</maxWeakCount>
      <stageThreshold>-7.6830750703811646e-01</stageThreshold>
      <weakClassifiers>
        <_>
          <internalNodes>
            0 -1 91 -1.7374713206663728e-04</internalNodes>
          <leafValues>
            8.0606061220169067e-01 -8.5635358095169067e-01</leafValues></_>
        <_>
          <internalNodes>
            0 -1 82 -3.5016008769161999e-04</internalNodes>
          <leafValues>
            8.6068308353424072e-01 -7.2382551431655884e-01</leafValues></_>
        <_>
          <internalNodes>
            0 -1 14 4.7987503930926323e-03</internalNodes>
          <leafValues>
            -7.7263700962066650e-01 8.1332564353942871e-01</leafValues></_></weakClassifiers></_>
    <!-- stage 2 -->
    <_>
      <maxWeakCount>5</maxWeakCount>
      <stageThreshold>-8.0950653553009033e-01</stageThreshold>
      <weakClassifiers>
        <_>
          <internalNodes>
            0 -1 84 3.0634049326181412e-02</internalNodes>
          <leafValues>
            -5.9821426868438721e-01 9.1803276538848877e-01</leafValues></_>
        <_>
          <internalNodes>
            0 -1 47 -5.5916323617566377e-05</internalNodes>
          <leafValues>
            5.6468492746353149e-01 -6.6654086112976074e-01</leafValues></_>
        <_>
          <internalNodes>
            0 -1 45 -1.4421669766306877e-03</internalNodes>
          <leafValues>
            5.2702176570892334e-01 -6.9993519783020020e-01</leafValues></_>
        <_>
          <internalNodes>
            0 -1 19 1.0275522246956825e-02</internalNodes>
          <leafValues>
            -4.5029076933860779e-01 8.0335152149200439e-01</leafValues></_>
        <_>
          <internalNodes>
            0 -1 35 -1.6307145124301314e-03</internalNodes>
          <leafValues>
            -9.8644620180130005e-01 3.7851765751838684e-01</leafValues></_></weakClassifiers></_>
    <!-- stage 3 -->
    <_>
      <maxWeakCount>4</maxWeakCount>
      <stageThreshold>-3.2786697149276733e-01</stageThreshold>
      <weakClassifiers>
        <_>
          <internalNodes>
            0 -1 16 6.7169271409511566e-02</internalNodes>
          <leafValues>
            -5.7603687047958374e-01 7.9844963550567627e-01</leafValues></_>
        <_>
          <internalNodes>
            0 -1 73 -8.9983060024678707e-04</internalNodes>
          <leafValues>
            5.5949759483337402e-01 -5.8572161197662354e-01</leafValues></_>
        <_>
          <internalNodes>
            0 -1 32 -3.0314531613839790e-05</internalNodes>
          <leafValues>
            3.5015377402305603e-01 -8.7243264913558960e-01</leafValues></_>
        <_>
          <internalNodes>
            0 -1 77 4.8181465826928616e-03</internalNodes>
          <leafValues>
            -6.2188482284545898e-01 5.6110495328903198e-01</leafValues></_></weakClassifiers></_>
    <!-- stage 4 -->
    <_>
      <maxWeakCount>4</maxWeakCount>
      <stageThreshold>-3.2780382037162781e-01</stageThreshold>
      <weakClassifiers>
        <_>
          <internalNodes>
            0 -1 76 3.9815314114093781e-02</internalNodes>
          <leafValues>
            -5.4716980457305908e-01 7.0149254798889160e-01</leafValues></_>
        <_>
          <internalNodes>
            0 -1 31 1.2908427743241191e-04</internalNodes>
          <leafValues>
            3.6178699135780334e-01 -8.8318604230880737e-01</leafValues></_>
        <_>
          <internalNodes>
            0 -1 68 -2.3968910682015121e-05</internalNodes>
          <leafValues>
            3.6691799759864807e-01 -7.5648951530456543e-01</leafValues></_>
        <_>
          <internalNodes>
            0 -1 15 1.4321313239634037e-02</internalNodes>
          <leafValues>
            -5.0933897495269775e-01 7.1437692642211914e-01</leafValues></_></weakClassifiers></_>
    <!-- stage 5 -->
    <_>
      <maxWeakCount>6</maxWeakCount>
      <stageThreshold>-3.6774492263793945e-01</stageThreshold>
      <weakClassifiers>
        <_>
          <internalNodes>
            0 -1 80 -2.3354936391115189e-02</internalNodes>
          <leafValues>
            6.2589925527572632e-01 -5.2657002210617065e-01</leafValues></_>
        <_>
          <internalNodes>
            0 -1 62 -1.1679358431138098e-04</internalNodes>
          <leafValues>
            4.0462607145309448e-01 -7.0779925584793091e-01</leafValues></_>
        <_>
          <internalNodes>
            0 -1 14 1.3920983299612999e-02</internalNodes>
          <leafValues>
            -5.5451297760009766e-01 5.5046528577804565e-01</leafValues></_>
        <_>
          <internalNodes>
            0 -1 27 -8.4939470980316401e-04</internalNodes>
          <leafValues>
            4.7274196147918701e-01 -7.1005111932754517e-01</leafValues></_>
        <_>
          <internalNodes>
            0 -1 75 6.4186416566371918e-03</internalNodes>
          <leafValues>
            -5.1889467239379883e-01 5.1978951692581177e-01</leafValues></_>
        <_>
          <internalNodes>
            0 -1 55 -4.6541957999579608e-05</internalNodes>
          <leafValues>
            4.9897369742393494e-01 -5.8363366127014160e-01</leafValues></_></weakClassifiers></_>
    <!-- stage 6 -->
    <_>
      <maxWeakCount>4</maxWeakCount>
      <stageThreshold>-6.7323350906372070e-01</stageThreshold>
      <weakClassifiers>
        <_>
          <internalNodes>
            0 -1 0 3.8007955998182297e-02</internalNodes>
          <leafValues>
            -6.5745854377746582e-01 5.8787876367568970e-01</leafValues></_>
        <_>
          <internalNodes>
            0 -1 88 -7.4634281918406487e-03</internalNodes>
          <leafValues>
            5.8575111627578735e-01 -6.3586586713790894e-01</leafValues></_>
        <_>
          <internalNodes>
            0 -1 30 6.4612715505063534e-04</internalNodes>
          <leafValues>
            3.4073328971862793e-01 -9.0060752630233765e-01</leafValues></_>
        <_>
          <internalNodes>
            0 -1 72 1.7900214879773557e-04</internalNodes>
          <leafValues>
            2.9908141493797302e-01 -9.2085736989974976e-01</leafValues></_></weakClassifiers></_>
    <!-- stage 7 -->
    <_>
      <maxWeakCount>4</maxWeakCount>
      <stageThreshold>-6.7586606740951538e-01</stageThreshold>
      <weakClassifiers>
        <_>
          <internalNodes>
            0 -1 2 2.7309505268931389e-02</internalNodes>
          <leafValues>
            -6.0591131448745728e-01 7.0629370212554932e-01</leafValues></_>
        <_>
          <internalNodes>
            0 -1 66 -2.4069534265436232e-04</internalNodes>
          <leafValues>
            4.0584301948547363e-01 -8.5058081150054932e-01</leafValues></_>
        <_>
          <internalNodes>
            0 -1 28 -1.6086298273876309e-05</internalNodes>
          <leafValues>
            3.8424789905548096e-01 -6.3748669624328613e-01</leafValues></_>
        <_>
          <internalNodes>
            0 -1 39 -4.9239431973546743e-04</internalNodes>
          <leafValues>
            3.9637818932533264e-01 -6.8913859128952026e-01</leafValues></_></weakClassifiers></_>
    <!-- stage 8 -->
    <_>
      <maxWeakCount>5</maxWeakCount>
      <stageThreshold>-1.0893261432647705e+00</stageThreshold>
      <weakClassifiers>
        <_>
          <internalNodes>
            0 -1 3 3.7542134523391724e-02</internalNodes>
          <leafValues>
            -6.1538463830947876e-01 5.4878050088882446e-01</leafValues></_>
        <_>
          <internalNodes>
            0 -1 63 -4.7431378334295005e-05</internalNodes>
          <leafValues>
            6.3049250841140747e-01 -4.9706313014030457e-01</leafValues></_>
        <_>
          <internalNodes>
            0 -1 54 -4.7962766984710470e-05</internalNodes>
          <leafValues>
            4.6959003806114197e-01 -6.8514996767044067e-01</leafValues></_>
        <_>
          <internalNodes>
            0 -1 60 8.4011000581085682e-04</internalNodes>
          <leafValues>
            3.4973213076591492e-01 -8.1901258230209351e-01</leafValues></_>
        <_>
          <internalNodes>
            0 -1 17 -8.8851549662649632e-05</internalNodes>
          <leafValues>
            3.5853943228721619e-01 -7.0076966285705566e-01</leafValues></_></weakClassifiers></_>
    <!-- stage 9 -->
    <_>
      <maxWeakCount>6</maxWeakCount>
      <stageThreshold>-6.7019414901733398e-01</stageThreshold>
      <weakClassifiers>
        <_>
          <internalNodes>
            0 -1 5 3.1565338373184204e-02</internalNodes>
          <leafValues>
            -3.8775509595870972e-01 7.2277230024337769e-01</leafValues></_>
        <_>
          <internalNodes>
            0 -1 26 -3.9823364204494283e-05</internalNodes>
          <leafValues>
            3.5124245285987854e-01 -7.9954534769058228e-01</leafValues></_>
        <_>
          <internalNodes>
            0 -1 33 -6.1327056027948856e-04</internalNodes>
          <leafValues>
            4.4430100917816162e-01 -6.0320878028869629e-01</leafValues></_>
        <_>
          <internalNodes>
            0 -1 46 -9.2483521439135075e-04</internalNodes>
          <leafValues>
            -8.8073974847793579e-01 3.7010195851325989e-01</leafValues></_>
        <_>
          <internalNodes>
            0 -1 89 -1.2576516717672348e-02</internalNodes>
          <leafValues>
            6.1648350954055786e-01 -4.9056953191757202e-01</leafValues></_>
        <_>
          <internalNodes>
            0 -1 61 2.4775355122983456e-03</internalNodes>
          <leafValues>
            2.9332676529884338e-01 -8.8925147056579590e-01</leafValues></_></weakClassifiers></_>
    <!-- stage 10 -->
    <_>
      <maxWeakCount>5</maxWeakCount>
      <stageThreshold>-6.6772300004959106e-01</stageThreshold>
      <weakClassifiers>
        <_>
          <internalNodes>
            0 -1 78 -1.1011639435309917e-04</internalNodes>
          <leafValues>
            3.7198066711425781e-01 -7.1223020553588867e-01</leafValues></_>
        <_>
          <internalNodes>
            0 -1 51 3.9957524277269840e-03</internalNodes>
          <leafValues>
            2.1843731403350830e-01 -9.7874051332473755e-01</leafValues></_>
        <_>
          <internalNodes>
            0 -1 83 -6.6165892349090427e-05</internalNodes>
          <leafValues>
            3.9754968881607056e-01 -6.9563287496566772e-01</leafValues></_>
        <_>
          <internalNodes>
            0 -1 25 1.2556227738969028e-04</internalNodes>
          <leafValues>
            2.6756197214126587e-01 -8.7814599275588989e-01</leafValues></_>
        <_>
          <internalNodes>
            0 -1 71 -3.3017920941347256e-05</internalNodes>
          <leafValues>
            4.1963317990303040e-01 -6.2156814336776733e-01</leafValues></_></weakClassifiers></_>
    <!-- stage 11 -->
    <_>
      <maxWeakCount>5</maxWeakCount>
      <stageThreshold>-6.0053771734237671e-01</stageThreshold>
      <weakClassifiers>
        <_>
          <internalNodes>
            0 -1 85 -1.7322206404060125e-03</internalNodes>
          <leafValues>
            3.9896371960639954e-01 -6.4705884456634521e-01</leafValues></_>
        <_>
          <internalNodes>
            0 -1 1 3.5558782517910004e-02</internalNodes>
          <leafValues>
            -4.4594311714172363e-01 6.3751274347305298e-01</leafValues></_>
        <_>
          <internalNodes>
            0 -1 48 6.8965769605711102e-04</internalNodes>
          <leafValues>
            2.8926396369934082e-01 -8.5683172941207886e-01</leafValues></_>
        <_>
          <internalNodes>
            0 -1 57 -1.1626098304986954e-02</internalNodes>
          <leafValues>
            7.4452775716781616e-01 -3.1494313478469849e-01</leafValues></_>
        <_>
          <internalNodes>
            0 -1 7 -9.4205848872661591e-03</internalNodes>
          <leafValues>
            5.4141795635223389e-01 -5.2787917852401733e-01</leafValues></_></weakClassifiers></_>
    <!-- stage 12 -->
    <_>
      <maxWeakCount>5</maxWeakCount>
      <stageThreshold>-5.4543972015380859e-01</stageThreshold>
      <weakClassifiers>
        <_>
          <internalNodes>
            0 -1 96 -1.2317596003413200e-02</internalNodes>
          <leafValues>
            6.2601625919342041e-01 -4.4394618272781372e-01</leafValues></_>
        <_>
          <internalNodes>
            0 -1 23 -7.6825745054520667e-05</internalNodes>
          <leafValues>
            3.6595502495765686e-01 -6.6675764322280884e-01</leafValues></_>
        <_>
          <internalNodes>
            0 -1 74 1.2563699856400490e-02</internalNodes>
          <leafValues>
            -3.5987445712089539e-01 7.2589629888534546e-01</leafValues></_>
        <_>
          <internalNodes>
            0 -1 9 4.2538219131529331e-03</internalNodes>
          <leafValues>
            -5.0382089614868164e-01 4.7899264097213745e-01</leafValues></_>
        <_>
          <internalNodes>
            0 -1 49 -3.6409826134331524e-04</internalNodes>
          <leafValues>
            -5.6818372011184692e-01 4.4614592194557190e-01</leafValues></_></weakClassifiers></_>
    <!-- stage 13 -->
    <_>
      <maxWeakCount>6</maxWeakCount>
      <stageThreshold>-1.3120914697647095e+00</stageThreshold>
      <weakClassifiers>
        <_>
          <internalNodes>
            0 -1 59 -1.9952515140175819e-04</internalNodes>
          <leafValues>
            2.7350428700447083e-01 -7.6785713434219360e-01</leafValues></_>
        <_>
          <internalNodes>
            0 -1 67 2.2545554675161839e-03</internalNodes>
          <leafValues>
            2.0663988590240479e-01 -9.5475405454635620e-01</leafValues></_>
        <_>
          <internalNodes>
            0 -1 56 5.0020357593894005e-03</internalNodes>
          <leafValues>
            -4.9842393398284912e-01 5.5990463495254517e-01</leafValues></_>
        <_>
          <internalNodes>
            0 -1 93 -1.7842627130448818e-03</internalNodes>
          <leafValues>
            6.4190113544464111e-01 -3.6983221769332886e-01</leafValues></_>
        <_>
          <internalNodes>
            0 -1 34 -9.6170753240585327e-03</internalNodes>
          <leafValues>
            5.2058506011962891e-01 -4.6502903103828430e-01</leafValues></_>
        <_>
          <internalNodes>
            0 -1 29 -3.9739315980114043e-05</internalNodes>
          <leafValues>
            5.3860050439834595e-01 -4.7591757774353027e-01</leafValues></_></weakClassifiers></_>
    <!-- stage 14 -->
    <_>
      <maxWeakCount>6</maxWeakCount>
      <stageThreshold>-5.0880670547485352e-01</stageThreshold>
      <weakClassifiers>
        <_>
          <internalNodes>
            0 -1 4 9.5068365335464478e-02</internalNodes>
          <leafValues>
            -5.0495052337646484e-01 5.5555558204650879e-01</leafValues></_>
        <_>
          <internalNodes>
            0 -1 37 5.5330328177660704e-04</internalNodes>
          <leafValues>
            2.2821284830570221e-01 -8.8845956325531006e-01</leafValues></_>
        <_>
          <internalNodes>
            0 -1 42 -8.2655009464360774e-05</internalNodes>
          <leafValues>
            2.8759166598320007e-01 -6.5202027559280396e-01</leafValues></_>
        <_>
          <internalNodes>
            0 -1 90 -2.6879262179136276e-02</internalNodes>
          <leafValues>
            7.3497802019119263e-01 -3.0448427796363831e-01</leafValues></_>
        <_>
          <internalNodes>
            0 -1 13 -8.2597980508580804e-04</internalNodes>
          <leafValues>
            5.9724867343902588e-01 -4.1236943006515503e-01</leafValues></_>
        <_>
          <internalNodes>
            0 -1 52 -1.3843192718923092e-03</internalNodes>
          <leafValues>
            -9.6903198957443237e-01 3.0424726009368896e-01</leafValues></_></weakClassifiers></_>
    <!-- stage 15 -->
    <_>
      <maxWeakCount>5</maxWeakCount>
      <stageThreshold>-7.6785242557525635e-01</stageThreshold>
      <weakClassifiers>
        <_>
          <internalNodes>
            0 -1 87 -9.5816247630864382e-04</internalNodes>
          <leafValues>
            3.6734694242477417e-01 -6.2666666507720947e-01</leafValues></_>
        <_>
          <internalNodes>
            0 -1 43 -1.6489265253767371e-03</internalNodes>
          <leafValues>
            6.7607080936431885e-01 -3.3887141942977905e-01</leafValues></_>
        <_>
          <internalNodes>
            0 -1 53 1.8612339626997709e-03</internalNodes>
          <leafValues>
            2.8274035453796387e-01 -9.3948161602020264e-01</leafValues></_>
        <_>
          <internalNodes>
            0 -1 20 -3.8266900810413063e-04</internalNodes>
          <leafValues>
            5.2029657363891602e-01 -4.5825681090354919e-01</leafValues></_>
        <_>
          <internalNodes>
            0 -1 10 2.6643071323633194e-03</internalNodes>
          <leafValues>
            -4.2245104908943176e-01 6.0141050815582275e-01</leafValues></_></weakClassifiers></_>
    <!-- stage 16 -->
    <_>
      <maxWeakCount>5</maxWeakCount>
      <stageThreshold>-9.2808258533477783e-01</stageThreshold>
      <weakClassifiers>
        <_>
          <internalNodes>
            0 -1 86 -8.2177773583680391e-04</internalNodes>
          <leafValues>
            3.1400966644287109e-01 -6.2589925527572632e-01</leafValues></_>
        <_>
          <internalNodes>
            0 -1 65 2.2942982614040375e-03</internalNodes>
          <leafValues>
            2.0329816639423370e-01 -7.9650032520294189e-01</leafValues></_>
        <_>
          <internalNodes>
            0 -1 22 3.6828257143497467e-03</internalNodes>
          <leafValues>
            -4.3764519691467285e-01 4.0975466370582581e-01</leafValues></_>
        <_>
          <internalNodes>
            0 -1 81 -2.4541665334254503e-04</internalNodes>
          <leafValues>
            4.8363974690437317e-01 -4.1363719105720520e-01</leafValues></_>
        <_>
          <internalNodes>
            0 -1 92 -4.3675005435943604e-03</internalNodes>
          <leafValues>
            3.5963621735572815e-01 -5.5147606134414673e-01</leafValues></_></weakClassifiers></_>
    <!-- stage 17 -->
    <_>
      <maxWeakCount>6</maxWeakCount>
      <stageThreshold>-8.6295408010482788e-01</stageThreshold>
      <weakClassifiers>
        <_>
          <internalNodes>
            0 -1 12 1.0727165266871452e-02</internalNodes>
          <leafValues>
            -4.3283581733703613e-01 4.4827586412429810e-01</leafValues></_>
        <_>
          <internalNodes>
            0 -1 21 -2.2240257821977139e-03</internalNodes>
          <leafValues>
            -8.5982847213745117e-01 2.3417465388774872e-01</leafValues></_>
        <_>
          <internalNodes>
            0 -1 41 -5.1102379075018689e-05</internalNodes>
          <leafValues>
            2.8575971722602844e-01 -5.9171211719512939e-01</leafValues></_>
        <_>
          <internalNodes>
            0 -1 36 -6.0132658109068871e-04</internalNodes>
          <leafValues>
            -9.3650031089782715e-01 2.2581370174884796e-01</leafValues></_>
        <_>
          <internalNodes>
            0 -1 44 -2.0250923931598663e-02</internalNodes>
          <leafValues>
            6.2922799587249756e-01 -3.5518479347229004e-01</leafValues></_>
        <_>
          <internalNodes>
            0 -1 69 7.5892341556027532e-04</internalNodes>
          <leafValues>
            3.3799263834953308e-01 -7.0470404624938965e-01</leafValues></_></weakClassifiers></_>
    <!-- stage 18 -->
    <_>
      <maxWeakCount>7</maxWeakCount>
      <stageThreshold>-1.2093671560287476e+00</stageThreshold>
      <weakClassifiers>
        <_>
          <internalNodes>
            0 -1 18 9.9355250597000122e-02</internalNodes>
          <leafValues>
            -4.7777777910232544e-01 3.8554215431213379e-01</leafValues></_>
        <_>
          <internalNodes>
            0 -1 79 -8.7380118202418089e-05</internalNodes>
          <leafValues>
            3.0034548044204712e-01 -5.9118247032165527e-01</leafValues></_>
        <_>
          <internalNodes>
            0 -1 94 7.4398089200258255e-03</internalNodes>
          <leafValues>
            -2.9671037197113037e-01 6.6318255662918091e-01</leafValues></_>
        <_>
          <internalNodes>
            0 -1 95 -1.8993787467479706e-02</internalNodes>
          <leafValues>
            6.6841089725494385e-01 -2.7039349079132080e-01</leafValues></_>
        <_>
          <internalNodes>
            0 -1 6 -4.9548335373401642e-03</internalNodes>
          <leafValues>
            5.5571997165679932e-01 -3.5759675502777100e-01</leafValues></_>
        <_>
          <internalNodes>
            0 -1 40 -4.8413506010547280e-04</internalNodes>
          <leafValues>
            -7.6806014776229858e-01 2.6986655592918396e-01</leafValues></_>
        <_>
          <internalNodes>
            0 -1 11 -1.9016154110431671e-02</internalNodes>
          <leafValues>
            4.7800064086914063e-01 -4.4546577334403992e-01</leafValues></_></weakClassifiers></_>
    <!-- stage 19 -->
    <_>
      <maxWeakCount>5</maxWeakCount>
      <stageThreshold>-9.2021876573562622e-01</stageThreshold>
      <weakClassifiers>
        <_>
          <internalNodes>
            0 -1 58 -9.5414950919803232e-05</internalNodes>
          <leafValues>
            3.5185185074806213e-01 -7.5384616851806641e-01</leafValues></_>
        <_>
          <internalNodes>
            0 -1 50 -2.1747004939243197e-04</internalNodes>
          <leafValues>
            -8.7849611043930054e-01 2.0219518244266510e-01</leafValues></_>
        <_>
          <internalNodes>
            0 -1 70 -9.5223731477744877e-05</internalNodes>
          <leafValues>
            4.1157674789428711e-01 -4.8994150757789612e-01</leafValues></_>
        <_>
          <internalNodes>
            0 -1 64 -1.6399752348661423e-03</internalNodes>
          <leafValues>
            7.8961181640625000e-01 -3.0313643813133240e-01</leafValues></_>
        <_>
          <internalNodes>
            0 -1 8 -1.7229054123163223e-02</internalNodes>
          <leafValues>
            4.2451012134552002e-01 -5.4352295398712158e-01</leafValues></_></weakClassifiers></_></stages>
  <features>
    <_>
      <rects>
        <_>
          0 0 10 5 -1.</_>
        <_>
          5 0 5 5 2.</_></rects>
      <tilted>0</tilted></_>
    <_>
      <rects>
        <_>
          0 1 6 6 -1.</_>
        <_>
          3 1 3 6 2.</_></rects>
      <tilted>0</tilted></_>
    <_>
      <rects>
        <_>
          0 1 8 4 -1.</_>
        <_>
          4 1 4 4 2.</_></rects>
      <tilted>0</tilted></_>
    <_>
      <rects>
        <_>
          0 1 10 4 -1.</_>
        <_>
          5 1 5 4 2.</_></rects>
      <tilted>0</tilted></_>
    <_>
      <rects>
        <_>
          0 1 24 3 -1.</_>
        <_>
          8 1 8 3 3.</_></rects>
      <tilted>0</tilted></_>
    <_>
      <rects>
        <_>
          0 3 4 7 -1.</_>
        <_>
          2 3 2 7 2.</_></rects>
      <tilted>0</tilted></_>
    <_>
      <rects>
        <_>
          0 3 8 4 -1.</_>
        <_>
          0 3 4 2 2.</_>
        <_>
          4 5 4 2 2.</_></rects>
      <tilted>0</tilted></_>
    <_>
      <rects>
        <_>
          0 8 4 10 -1.</_>
        <_>
          0 13 4 5 2.</_></rects>
      <tilted>0</tilted></_>
    <_>
      <rects>
        <_>
          0 15 8 8 -1.</_>
        <_>
          0 19 8 4 2.</_></rects>
      <tilted>0</tilted></_>
    <_>
      <rects>
        <_>
          0 17 24 1 -1.</_>
        <_>
          8 17 8 1 3.</_></rects>
      <tilted>0</tilted></_>
    <_>
      <rects>
        <_>
          0 18 8 1 -1.</_>
        <_>
          4 18 4 1 2.</_></rects>
      <tilted>0</tilted></_>
    <_>
      <rects>
        <_>
          0 19 23 4 -1.</_>
        <_>
          0 21 23 2 2.</_></rects>
      <tilted>0</tilted></_>
    <_>
      <rects>
        <_>
          1 0 14 2 -1.</_>
        <_>
          1 1 14 1 2.</_></rects>
      <tilted>0</tilted></_>
    <_>
      <rects>
        <_>
          1 19 2 5 -1.</_>
        <_>
          2 19 1 5 2.</_></rects>
      <tilted>0</tilted></_>
    <_>
      <rects>
        <_>
          2 0 4 6 -1.</_>
        <_>
          2 3 4 3 2.</_></rects>
      <tilted>0</tilted></_>
    <_>
      <rects>
        <_>
          2 0 5 4 -1.</_>
        <_>
          2 2 5 2 2.</_></rects>
      <tilted>0</tilted></_>
    <_>
      <rects>
        <_>
          2 0 21 6 -1.</_>
        <_>
          2 3 21 3 2.</_></rects>
      <tilted>0</tilted></_>
    <_>
      <rects>
        <_>
          2 16 6 2 -1.</_>
        <_>
          2 17 6 1 2.</_></rects>
      <tilted>0</tilted></_>
    <_>
      <rects>
        <_>
          3 0 21 7 -1.</_>
        <_>
          10 0 7 7 3.</_></rects>
      <tilted>0</tilted></_>
    <_>
      <rects>
        <_>
          3 0 12 2 -1.</_>
        <_>
          3 1 12 1 2.</_></rects>
      <tilted>0</tilted></_>
    <_>
      <rects>
        <_>
          3 6 2 2 -1.</_>
        <_>
          3 7 2 1 2.</_></rects>
      <tilted>0</tilted></_>
    <_>
      <rects>
        <_>
          3 16 13 3 -1.</_>
        <_>
          3 17 13 1 3.</_></rects>
      <tilted>0</tilted></_>
    <_>
      <rects>
        <_>
          4 0 9 2 -1.</_>
        <_>
          4 1 9 1 2.</_></rects>
      <tilted>0</tilted></_>
    <_>
      <rects>
        <_>
          4 11 1 4 -1.</_>
        <_>
          4 13 1 2 2.</_></rects>
      <tilted>0</tilted></_>
    <_>
      <rects>
        <_>
          4 14 10 6 -1.</_>
        <_>
          4 17 10 3 2.</_></rects>
      <tilted>0</tilted></_>
    <_>
      <rects>
        <_>
          4 16 10 2 -1.</_>
        <_>
          4 17 10 1 2.</_></rects>
      <tilted>0</tilted></_>
    <_>
      <rects>
        <_>
          4 18 8 2 -1.</_>
        <_>
          4 19 8 1 2.</_></rects>
      <tilted>0</tilted></_>
    <_>
      <rects>
        <_>
          5 9 8 4 -1.</_>
        <_>
          5 11 8 2 2.</_></rects>
      <tilted>0</tilted></_>
    <_>
      <rects>
        <_>
          5 19 2 2 -1.</_>
        <_>
          5 20 2 1 2.</_></rects>
      <tilted>0</tilted></_>
    <_>
      <rects>
        <_>
          6 3 1 3 -1.</_>
        <_>
          6 4 1 1 3.</_></rects>
      <tilted>0</tilted></_>
    <_>
      <rects>
        <_>
          6 13 2 3 -1.</_>
        <_>
          6 14 2 1 3.</_></rects>
      <tilted>0</tilted></_>
    <_>
      <rects>
        <_>
          6 13 2 4 -1.</_>
        <_>
          6 15 2 2 2.</_></rects>
      <tilted>0</tilted></_>
    <_>
      <rects>
        <_>
          6 16 2 4 -1.</_>
        <_>
          6 18 2 2 2.</_></rects>
      <tilted>0</tilted></_>
    <_>
      <rects>
        <_>
          6 20 10 2 -1.</_>
        <_>
          6 21 10 1 2.</_></rects>
      <tilted>0</tilted></_>
    <_>
      <rects>
        <_>
          7 6 8 6 -1.</_>
        <_>
          7 9 8 3 2.</_></rects>
      <tilted>0</tilted></_>
    <_>
      <rects>
        <_>
          7 10 3 8 -1.</_>
        <_>
          8 10 1 8 3.</_></rects>
      <tilted>0</tilted></_>
    <_>
      <rects>
        <_>
          7 12 2 6 -1.</_>
        <_>
          7 12 1 3 2.</_>
        <_>
          8 15 1 3 2.</_></rects>
      <tilted>0</tilted></_>
    <_>
      <rects>
        <_>
          7 12 2 3 -1.</_>
        <_>
          7 13 2 1 3.</_></rects>
      <tilted>0</tilted></_>
    <_>
      <rects>
        <_>
          7 16 3 6 -1.</_>
        <_>
          7 19 3 3 2.</_></rects>
      <tilted>0</tilted></_>
    <_>
      <rects>
        <_>
          8 6 1 12 -1.</_>
        <_>
          8 12 1 6 2.</_></rects>
      <tilted>0</tilted></_>
    <_>
      <rects>
        <_>
          8 13 4 4 -1.</_>
        <_>
          8 13 2 2 2.</_>
        <_>
          10 15 2 2 2.</_></rects>
      <tilted>0</tilted></_>
    <_>
      <rects>
        <_>
          8 13 3 2 -1.</_>
        <_>
          8 14 3 1 2.</_></rects>
      <tilted>0</tilted></_>
    <_>
      <rects>
        <_>
          8 18 1 4 -1.</_>
        <_>
          8 20 1 2 2.</_></rects>
      <tilted>0</tilted></_>
    <_>
      <rects>
        <_>
          8 21 6 2 -1.</_>
        <_>
          8 22 6 1 2.</_></rects>
      <tilted>0</tilted></_>
    <_>
      <rects>
        <_>
          9 5 7 8 -1.</_>
        <_>
          9 9 7 4 2.</_></rects>
      <tilted>0</tilted></_>
    <_>
      <rects>
        <_>
          9 6 1 12 -1.</_>
        <_>
          9 12 1 6 2.</_></rects>
      <tilted>0</tilted></_>
    <_>
      <rects>
        <_>
          9 14 4 4 -1.</_>
        <_>
          9 14 2 2 2.</_>
        <_>
          11 16 2 2 2.</_></rects>
      <tilted>0</tilted></_>
    <_>
      <rects>
        <_>
          9 19 3 2 -1.</_>
        <_>
          9 20 3 1 2.</_></rects>
      <tilted>0</tilted></_>
    <_>
      <rects>
        <_>
          10 14 2 8 -1.</_>
        <_>
          10 14 1 4 2.</_>
        <_>
          11 18 1 4 2.</_></rects>
      <tilted>0</tilted></_>
    <_>
      <rects>
        <_>
          10 14 2 10 -1.</_>
        <_>
          10 14 1 5 2.</_>
        <_>
          11 19 1 5 2.</_></rects>
      <tilted>0</tilted></_>
    <_>
      <rects>
        <_>
          10 18 3 1 -1.</_>
        <_>
          11 18 1 1 3.</_></rects>
      <tilted>0</tilted></_>
    <_>
      <rects>
        <_>
          11 1 3 22 -1.</_>
        <_>
          12 1 1 22 3.</_></rects>
      <tilted>0</tilted></_>
    <_>
      <rects>
        <_>
          11 13 3 9 -1.</_>
        <_>
          12 13 1 9 3.</_></rects>
      <tilted>0</tilted></_>
    <_>
      <rects>
        <_>
          11 14 3 10 -1.</_>
        <_>
          12 14 1 10 3.</_></rects>
      <tilted>0</tilted></_>
    <_>
      <rects>
        <_>
          11 15 2 2 -1.</_>
        <_>
          11 16 2 1 2.</_></rects>
      <tilted>0</tilted></_>
    <_>
      <rects>
        <_>
          11 20 1 2 -1.</_>
        <_>
          11 21 1 1 2.</_></rects>
      <tilted>0</tilted></_>
    <_>
      <rects>
        <_>
          12 0 10 2 -1.</_>
        <_>
          12 1 10 1 2.</_></rects>
      <tilted>0</tilted></_>
    <_>
      <rects>
        <_>
          12 4 4 8 -1.</_>
        <_>
          12 8 4 4 2.</_></rects>
      <tilted>0</tilted></_>
    <_>
      <rects>
        <_>
          12 13 1 4 -1.</_>
        <_>
          12 15 1 2 2.</_></rects>
      <tilted>0</tilted></_>
    <_>
      <rects>
        <_>
          12 14 5 4 -1.</_>
        <_>
          12 16 5 2 2.</_></rects>
      <tilted>0</tilted></_>
    <_>
      <rects>
        <_>
          12 17 8 2 -1.</_>
        <_>
          12 17 4 1 2.</_>
        <_>
          16 18 4 1 2.</_></rects>
      <tilted>0</tilted></_>
    <_>
      <rects>
        <_>
          13 4 3 20 -1.</_>
        <_>
          14 4 1 20 3.</_></rects>
      <tilted>0</tilted></_>
    <_>
      <rects>
        <_>
          13 16 4 4 -1.</_>
        <_>
          13 18 4 2 2.</_></rects>
      <tilted>0</tilted></_>
    <_>
      <rects>
        <_>
          14 2 1 2 -1.</_>
        <_>
          14 3 1 1 2.</_></rects>
      <tilted>0</tilted></_>
    <_>
      <rects>
        <_>
          14 2 1 9 -1.</_>
        <_>
          14 5 1 3 3.</_></rects>
      <tilted>0</tilted></_>
    <_>
      <rects>
        <_>
          14 5 3 16 -1.</_>
        <_>
          15 5 1 16 3.</_></rects>
      <tilted>0</tilted></_>
    <_>
      <rects>
        <_>
          14 9 1 8 -1.</_>
        <_>
          14 13 1 4 2.</_></rects>
      <tilted>0</tilted></_>
    <_>
      <rects>
        <_>
          14 14 9 3 -1.</_>
        <_>
          14 15 9 1 3.</_></rects>
      <tilted>0</tilted></_>
    <_>
      <rects>
        <_>
          14 19 4 2 -1.</_>
        <_>
          14 20 4 1 2.</_></rects>
      <tilted>0</tilted></_>
    <_>
      <rects>
        <_>
          15 6 3 9 -1.</_>
        <_>
          16 6 1 9 3.</_></rects>
      <tilted>0</tilted></_>
    <_>
      <rects>
        <_>
          15 10 4 2 -1.</_>
        <_>
          15 11 4 1 2.</_></rects>
      <tilted>0</tilted></_>
    <_>
      <rects>
        <_>
          15 13 1 2 -1.</_>
        <_>
          15 14 1 1 2.</_></rects>
      <tilted>0</tilted></_>
    <_>
      <rects>
        <_>
          15 15 4 2 -1.</_>
        <_>
          15 16 4 1 2.</_></rects>
      <tilted>0</tilted></_>
    <_>
      <rects>
        <_>
          16 10 2 6 -1.</_>
        <_>
          16 13 2 3 2.</_></rects>
      <tilted>0</tilted></_>
    <_>
      <rects>
        <_>
          16 21 8 3 -1.</_>
        <_>
          20 21 4 3 2.</_></rects>
      <tilted>0</tilted></_>
    <_>
      <rects>
        <_>
          17 0 3 9 -1.</_>
        <_>
          17 3 3 3 3.</_></rects>
      <tilted>0</tilted></_>
    <_>
      <rects>
        <_>
          17 0 7 8 -1.</_>
        <_>
          17 4 7 4 2.</_></rects>
      <tilted>0</tilted></_>
    <_>
      <rects>
        <_>
          17 1 6 10 -1.</_>
        <_>
          17 1 3 5 2.</_>
        <_>
          20 6 3 5 2.</_></rects>
      <tilted>0</tilted></_>
    <_>
      <rects>
        <_>
          17 15 4 2 -1.</_>
        <_>
          17 16 4 1 2.</_></rects>
      <tilted>0</tilted></_>
    <_>
      <rects>
        <_>
          17 18 1 4 -1.</_>
        <_>
          17 20 1 2 2.</_></rects>
      <tilted>0</tilted></_>
    <_>
      <rects>
        <_>
          18 1 6 5 -1.</_>
        <_>
          21 1 3 5 2.</_></rects>
      <tilted>0</tilted></_>
    <_>
      <rects>
        <_>
          18 7 3 2 -1.</_>
        <_>
          18 8 3 1 2.</_></rects>
      <tilted>0</tilted></_>
    <_>
      <rects>
        <_>
          18 15 2 4 -1.</_>
        <_>
          18 17 2 2 2.</_></rects>
      <tilted>0</tilted></_>
    <_>
      <rects>
        <_>
          18 17 1 4 -1.</_>
        <_>
          18 19 1 2 2.</_></rects>
      <tilted>0</tilted></_>
    <_>
      <rects>
        <_>
          19 0 5 8 -1.</_>
        <_>
          19 4 5 4 2.</_></rects>
      <tilted>0</tilted></_>
    <_>
      <rects>
        <_>
          19 6 2 8 -1.</_>
        <_>
          19 10 2 4 2.</_></rects>
      <tilted>0</tilted></_>
    <_>
      <rects>
        <_>
          19 7 1 8 -1.</_>
        <_>
          19 11 1 4 2.</_></rects>
      <tilted>0</tilted></_>
    <_>
      <rects>
        <_>
          19 11 2 6 -1.</_>
        <_>
          19 14 2 3 2.</_></rects>
      <tilted>0</tilted></_>
    <_>
      <rects>
        <_>
          20 2 4 6 -1.</_>
        <_>
          22 2 2 6 2.</_></rects>
      <tilted>0</tilted></_>
    <_>
      <rects>
        <_>
          20 4 4 3 -1.</_>
        <_>
          22 4 2 3 2.</_></rects>
      <tilted>0</tilted></_>
    <_>
      <rects>
        <_>
          20 7 4 12 -1.</_>
        <_>
          22 7 2 12 2.</_></rects>
      <tilted>0</tilted></_>
    <_>
      <rects>
        <_>
          20 10 2 6 -1.</_>
        <_>
          20 13 2 3 2.</_></rects>
      <tilted>0</tilted></_>
    <_>
      <rects>
        <_>
          20 11 2 10 -1.</_>
        <_>
          20 16 2 5 2.</_></rects>
      <tilted>0</tilted></_>
    <_>
      <rects>
        <_>
          20 13 4 1 -1.</_>
        <_>
          22 13 2 1 2.</_></rects>
      <tilted>0</tilted></_>
    <_>
      <rects>
        <_>
          20 19 4 5 -1.</_>
        <_>
          22 19 2 5 2.</_></rects>
      <tilted>0</tilted></_>
    <_>
      <rects>
        <_>
          22 2 2 15 -1.</_>
        <_>
          23 2 1 15 2.</_></rects>
      <tilted>0</tilted></_>
    <_>
      <rects>
        <_>
          22 3 2 19 -1.</_>
        <_>
          23 3 1 19 2.</_></rects>
      <tilted>0</tilted></_></features></cascade>
</opencv_storage>
